model.0.weight: [[0.006721235811710358, 0.06595750153064728, 0.04632813483476639, -0.11422093957662582, 0.025761637836694717, 0.09177911281585693, 0.06013596057891846, 0.0039215851575136185, 0.197495698928833, 0.07056665420532227, -0.2114807665348053, -0.05067801475524902, -0.1240774393081665, -0.23324403166770935, -0.17385397851467133, 0.015076758340001106, -0.1115361824631691, -0.17063415050506592, 0.05709608271718025, -0.21749350428581238, -0.01842125877737999, -0.18556532263755798, -0.0954526960849762, -0.0008176550036296248], [-0.4210526943206787, -0.005253898911178112, 0.015482798218727112, 0.2635369896888733, -0.04589029401540756, -0.1325962245464325, -0.42710334062576294, 0.05359775945544243, -0.3154670000076294, 0.055589426308870316, -0.19339044392108917, -0.01717541553080082, -0.10989297926425934, 0.14813683927059174, -0.027171537280082703, -0.27905410528182983, -0.3237750232219696, -0.12386220693588257, -0.040720466524362564, 0.035395488142967224, -0.17697031795978546, -0.07569057494401932, -0.02968931756913662, -0.10062815994024277], [-0.2510457932949066, -0.21938446164131165, -0.241146057844162, 0.0890442281961441, -0.2919183671474457, -0.05597219616174698, -0.10193834453821182, 0.07335890829563141, -0.058527421206235886, -0.08865134418010712, -0.1549990177154541, -0.028368819504976273, 0.10723135620355606, -0.11396628618240356, 0.06132951378822327, -0.18431596457958221, 0.0040762098506093025, 0.09417809545993805, -0.08415710926055908, 0.06807691603899002, -0.151645690202713, 0.1250738650560379, -0.19700683653354645, -0.03372664004564285], [-0.2517356872558594, -0.29510387778282166, -0.048683855682611465, -0.30418863892555237, 0.05140529200434685, -0.061035655438899994, 0.08714078366756439, -0.17963401973247528, 0.009756391867995262, -0.12238536030054092, 0.04272984713315964, -0.18498508632183075, -0.3501296639442444, -0.11524353176355362, -0.020593907684087753, -0.32972607016563416, -0.044655028730630875, 0.031074125319719315, -0.04105522111058235, -0.021889807656407356, -0.18244357407093048, -0.031268924474716187, -0.053869884461164474, -0.2797416150569916], [-0.15007920563220978, 0.1737188696861267, 0.1819034069776535, -0.3271639943122864, -0.9406291842460632, -1.093266487121582, -0.32742199301719666, 1.1004369258880615, 0.3284902572631836, 0.3936936855316162, 0.4683331549167633, 0.006572873797267675, 0.13011494278907776, 0.17997565865516663, 0.28343668580055237, 0.6109383702278137, -0.32904165983200073, -0.7239848375320435, 0.9685888290405273, 0.20327222347259521, 0.033617664128541946, -0.2976652979850769, 0.8287100791931152, -0.11388415098190308], [-0.10736288875341415, 0.04165004938840866, -0.14221270382404327, -0.12261998653411865, 0.07291130721569061, 0.14006327092647552, -0.045623529702425, -0.08372699469327927, -0.24461229145526886, -0.06045054271817207, 0.020954523235559464, -0.17287588119506836, 0.11377525329589844, -0.21219170093536377, -0.0893968716263771, -0.21398863196372986, -0.20301087200641632, -0.22490255534648895, -0.15493890643119812, 0.007227008230984211, -0.1756051927804947, 0.1158304437994957, -0.12390673160552979, -0.09182240068912506], [0.1720726191997528, 0.1342935413122177, -0.19957377016544342, -0.054480575025081635, 0.08423755317926407, -0.21644315123558044, -0.2565652132034302, 0.029428686946630478, -0.16482944786548615, 0.03273863345384598, 0.045694466680288315, -0.06489729881286621, -0.10110334306955338, -0.20005790889263153, 0.07445205748081207, -0.09396515041589737, -0.16741323471069336, -0.04859165474772453, -0.03892568498849869, -0.21493573486804962, -0.033201295882463455, -0.188913494348526, 0.08650384843349457, -0.12200848758220673], [-0.16899317502975464, 0.010523628443479538, 0.19738472998142242, 0.03999815881252289, 0.0650346502661705, -0.11433450132608414, -0.14916247129440308, -0.08041108399629593, -0.08737348020076752, -0.20068137347698212, 0.07355210185050964, 0.19163250923156738, 0.06802812963724136, -0.1792004555463791, -0.11925218254327774, 0.08729875087738037, -0.17033268511295319, -0.1708616316318512, -0.12579171359539032, 0.09190432727336884, -0.12189938127994537, 0.10678944736719131, -0.13913089036941528, -0.09848254919052124], [-0.5067511796951294, 0.40043705701828003, -0.5006359219551086, 0.5631436705589294, -1.1362805366516113, -0.6038867235183716, -0.7995420694351196, 0.368431031703949, -0.04596944525837898, -0.008201010525226593, -0.6457819938659668, -0.1851896345615387, 0.30164605379104614, 0.19809801876544952, 0.47731319069862366, -0.7672716379165649, 0.19884778559207916, 1.0578614473342896, -0.2719780206680298, 0.293087899684906, 0.8886202573776245, -0.062022946774959564, -0.1589215099811554, 0.6066083312034607], [-0.12607428431510925, -0.15637800097465515, 0.04049906134605408, -0.13273687660694122, -0.1460753083229065, -0.17315682768821716, -0.03655364736914635, -0.06226272135972977, -0.13219554722309113, 0.14225119352340698, 0.05836468189954758, -0.0022958063054829836, 0.10338034480810165, 0.01538793183863163, 0.12163443863391876, -0.08385031670331955, 0.16459603607654572, -0.21842560172080994, -0.03127425163984299, -0.0933024138212204, -0.010534688830375671, -0.04619026556611061, -0.14578309655189514, 0.02991586923599243], [-0.49009132385253906, 0.3478921055793762, -0.3380719721317291, -0.4636099934577942, -1.207547903060913, -0.7979944944381714, -0.37361693382263184, 0.4389265179634094, -0.042044747620821, 0.0892849937081337, 0.13928726315498352, -0.27667704224586487, 0.1904786378145218, 0.16471560299396515, 0.6559032201766968, 0.3694745898246765, -0.02203955315053463, 0.40226393938064575, 0.02957373857498169, 0.16764888167381287, 0.37941092252731323, -0.19435372948646545, 0.4060593247413635, 0.09082941710948944], [0.01637079194188118, -0.2554132044315338, 0.12364505231380463, 0.0568755641579628, -0.1326991319656372, -0.151722252368927, -0.32630833983421326, 0.24700486660003662, 0.02686217799782753, 0.037287816405296326, -0.17921000719070435, -0.038238525390625, -0.10446053743362427, 0.19735844433307648, -0.16804060339927673, -0.16673734784126282, -0.0937151089310646, -0.09379706531763077, -0.16967488825321198, -0.08861951529979706, -0.011500490829348564, -0.1195477619767189, 0.0918547660112381, 0.009909195825457573], [-0.4210263192653656, -0.23658058047294617, -0.03391396999359131, 0.02291123941540718, -0.45471709966659546, -0.46066030859947205, -0.09585047513246536, 0.07244040817022324, -0.07006281614303589, 0.12009541690349579, 0.0570499487221241, -0.26629993319511414, 0.18449848890304565, 0.21012330055236816, 0.09835272282361984, -0.036568447947502136, -0.05462438985705376, 0.15383195877075195, -0.08658149838447571, 0.10728292167186737, -0.06946563720703125, -0.0014832125743851066, 0.004651868250221014, -0.058687400072813034], [-0.28248119354248047, -0.03632034361362457, -0.3868134617805481, 0.47670048475265503, -0.3907569944858551, 0.04305701330304146, -0.9280544519424438, -0.15495911240577698, -0.08217023313045502, 0.004469139967113733, -0.00629796227440238, -0.18121734261512756, 0.16443711519241333, 0.27882805466651917, 0.03218584880232811, 0.08439566195011139, -0.28423285484313965, 0.2132766991853714, -0.4030812382698059, 0.18233348429203033, 0.5336854457855225, 0.23599867522716522, -0.016916802152991295, 0.09502611309289932], [-0.029642129316926003, -0.0833134800195694, -0.12860755622386932, -0.07761102169752121, -0.05547846108675003, -0.22217921912670135, -0.33411699533462524, 0.19772158563137054, 0.0915834978222847, 0.03936365991830826, -0.2655232548713684, -0.29662173986434937, 0.08114425837993622, -0.017298279330134392, -0.06822220981121063, 0.018584655597805977, -0.19476333260536194, 0.14149436354637146, -0.31495168805122375, -0.14726421236991882, -0.012173423543572426, -0.16772106289863586, -0.23185527324676514, 0.027811363339424133], [-0.21206942200660706, -0.007209754083305597, 0.011378494091331959, -0.11145845800638199, -0.11229181289672852, 0.06381062418222427, -0.1885460913181305, -0.06445950269699097, -0.07060103118419647, -0.004842338617891073, -0.11995202302932739, -0.21017105877399445, 0.03515033796429634, 0.12325847148895264, 0.000413344067055732, -0.04349743202328682, 0.11788062751293182, -0.218390554189682, -0.06568228453397751, 0.04243016242980957, -0.2103613168001175, -0.08481812477111816, 0.03129042312502861, -0.226968914270401]]
model.0.bias: [-0.229159876704216, 0.031145581975579262, 0.13824781775474548, -0.2932291030883789, 0.0034208025317639112, 0.09899760782718658, 0.14117088913917542, -0.07671687006950378, 0.4122394621372223, -0.22618801891803741, 0.019341032952070236, -0.0684678852558136, -0.2025170773267746, 0.16202817857265472, 0.05852341651916504, -0.04452136904001236]
model.2.weight: [[0.17381148040294647, -0.044952552765607834, -0.21050329506397247, 0.10974559932947159, -0.04276546090841293, 0.19961905479431152, -0.22041983902454376, 0.2313074767589569, -0.015335461124777794, 0.1409565806388855, -0.0782240629196167, -0.2290654480457306, -0.17480218410491943, -0.061976801604032516, 0.2471567690372467, -0.17533865571022034], [0.12112538516521454, -0.1282341480255127, -0.06780407577753067, 0.13248379528522491, 0.598035991191864, -0.23903405666351318, 0.04148358851671219, -0.21513673663139343, 0.02917305752635002, -0.2012033462524414, 0.26800960302352905, -0.1727750450372696, -0.12772420048713684, 0.15738865733146667, -0.20599016547203064, 0.12165620177984238], [0.18926799297332764, -0.06315217167139053, 0.12480884790420532, 0.25221091508865356, 0.036970220506191254, -0.09829002618789673, -0.212439626455307, 0.03861582279205322, -0.17499659955501556, 0.17619071900844574, -0.11184899508953094, -0.13521821796894073, 0.006907427217811346, -0.014150649309158325, -0.14013850688934326, -0.2461417019367218], [-0.024999413639307022, 0.10740332305431366, 0.02573782205581665, 0.22764453291893005, -0.5373122096061707, -0.1730910986661911, -0.19453322887420654, -0.12891808152198792, 0.13633331656455994, -0.13865551352500916, -0.5814635157585144, 0.26917073130607605, -0.08265092223882675, -0.011803855188190937, 0.02842322364449501, 0.20344766974449158], [0.07767807692289352, -0.17134800553321838, -0.035427697002887726, -0.04960920661687851, -0.017000943422317505, 0.001666247844696045, 0.1924041509628296, 0.05117642879486084, -0.1087140291929245, -0.05450192093849182, -0.026164507493376732, -0.2140076607465744, 0.13392749428749084, 0.016726583242416382, -0.06148787587881088, 0.14644590020179749], [-0.08361303806304932, 0.11501282453536987, 0.21848750114440918, -0.27669182419776917, 0.920772910118103, 0.03752082586288452, -0.15768447518348694, -0.10082578659057617, 1.0491291284561157, 0.16774387657642365, 0.3582303822040558, -0.017451204359531403, 0.18745283782482147, 0.034740786999464035, 0.15337002277374268, -0.06334497034549713], [0.031157415360212326, -0.00941243302077055, 0.19158022105693817, -0.08834633976221085, 0.054775841534137726, -5.5342912673950195e-05, -0.1290358006954193, -0.054792702198028564, -1.313143014907837, 0.16140493750572205, -0.2893044054508209, 0.07955420762300491, 0.27550169825553894, -0.03468265384435654, -0.12774786353111267, -0.1461549997329712], [-0.22641877830028534, 0.20123791694641113, -0.008087551221251488, -0.18058431148529053, 0.3837638795375824, 0.0003468938230071217, 0.05075312778353691, -0.24589446187019348, -1.3382723331451416, -0.1548801213502884, -0.3016184866428375, -0.04205860197544098, 0.07257456332445145, 0.09042705595493317, -0.14254243671894073, -0.05189322680234909], [-0.19131828844547272, 0.1311083734035492, 0.1971253901720047, 0.10293116420507431, -0.1220468059182167, 0.06868859380483627, -0.22752079367637634, -0.05085060000419617, 1.1590418815612793, 0.24199025332927704, 0.24835996329784393, 0.21543315052986145, 0.01630239561200142, 0.36170029640197754, 0.08590564876794815, -0.15948401391506195], [0.07654155045747757, -0.14217254519462585, -0.17509526014328003, 0.10283882915973663, -0.12765736877918243, -0.04212978482246399, 0.07013450562953949, 0.18790274858474731, -0.09045809507369995, -0.19715231657028198, -0.2441668063402176, 0.08379828929901123, -0.22444362938404083, 0.1577027589082718, -0.2031313180923462, 0.08759555220603943], [-0.037584614008665085, 0.025799471884965897, 0.008193222805857658, -0.12192472070455551, -0.23912926018238068, 0.16690771281719208, 0.07029297202825546, 0.02109929919242859, -0.010967491194605827, -0.14244429767131805, 0.1614989936351776, 0.18725928664207458, -0.10116782039403915, 0.12098295986652374, 0.11504574120044708, -0.07732795178890228], [-0.13942988216876984, 0.21623167395591736, -0.2250218391418457, -0.25379621982574463, -0.033118367195129395, -0.1195523738861084, 0.11311034858226776, -0.23246106505393982, -0.14463475346565247, 0.1576375514268875, -0.22222867608070374, -0.11711806058883667, -0.08247440308332443, 0.10416917502880096, -0.08842458575963974, -0.031964629888534546], [-0.12348167598247528, -0.24680085480213165, -0.006546540651470423, -0.036983996629714966, -0.23174719512462616, 0.19053104519844055, -0.17112916707992554, 0.05741146206855774, -0.00993772316724062, 0.046283990144729614, -0.13046011328697205, -0.10486028343439102, 0.07802896201610565, -0.02627255953848362, 0.1127338856458664, 0.20886871218681335], [0.004964757245033979, -0.028635632246732712, 0.11493635177612305, 0.17457519471645355, 0.27009692788124084, -0.06773271411657333, -0.14379221200942993, 0.12481667846441269, 1.4342867136001587, 0.16697371006011963, 0.6628598570823669, -0.1466904580593109, 0.08925117552280426, 0.21551065146923065, -0.08030875027179718, 0.2108851671218872], [-0.05590818077325821, 0.19513626396656036, 0.10800546407699585, -0.24208399653434753, -0.22470521926879883, 0.08657945692539215, 0.1253143548965454, -0.1395433247089386, 1.4963560104370117, -0.1570434868335724, 0.24631237983703613, 0.04795270785689354, 0.2381509244441986, 0.2643379271030426, 0.004356979858130217, -0.10994820296764374], [-0.21477839350700378, 0.1679793894290924, -0.019244134426116943, -0.2337065190076828, -0.00693713640794158, -0.0482732355594635, -0.26259827613830566, 0.12151187658309937, 0.10672450065612793, 0.11300381273031235, -0.030356770381331444, -0.0600108802318573, -0.02044765092432499, -0.04314223676919937, -0.1278562843799591, -0.24577733874320984], [0.039286959916353226, 0.014491083100438118, 0.20973007380962372, -0.21215789020061493, 1.0839744806289673, -0.009687450714409351, -0.18675826489925385, -0.07908359169960022, 0.4568779468536377, -0.19870726764202118, 0.3699498772621155, -0.14441971480846405, -0.07705751806497574, -0.010923018679022789, -0.10229352861642838, 0.03426693379878998], [0.13787797093391418, -0.1762184202671051, -0.20038899779319763, -0.1151488870382309, -0.21291851997375488, 0.19855239987373352, 0.03671138733625412, 0.2070179432630539, -0.3091300427913666, -0.16820095479488373, 0.0002852219040505588, 0.10354186594486237, -0.0042889975011348724, -0.22610542178153992, -0.17591047286987305, -0.20708875358104706], [-0.09376364946365356, 0.07924243807792664, 0.17374394834041595, -0.034841299057006836, -0.5607042908668518, -0.08197732269763947, 0.07016737014055252, 0.24124851822853088, 1.7043111324310303, -0.011244784109294415, 0.16961289942264557, 0.042763374745845795, 0.012733143754303455, 0.4064892828464508, -0.02783593162894249, 0.13772952556610107], [-0.11653225123882294, 0.18410365283489227, 0.1967059075832367, -0.045230429619550705, 1.619781494140625, 0.024778664112091064, 0.07893270999193192, 0.012275338172912598, -1.0999971628189087, 0.1444130688905716, 0.32679805159568787, -0.036683328449726105, -0.08190413564443588, -0.26252248883247375, 0.07635726034641266, -0.1049719825387001], [0.003855255199596286, 0.12982919812202454, -0.21835336089134216, -0.17520630359649658, -0.09205994755029678, -0.16217875480651855, 0.02531193569302559, -0.13151869177818298, -0.021382495760917664, 0.22598829865455627, -0.22398872673511505, -0.21073289215564728, -0.03207149729132652, -0.1371603161096573, 0.1729397475719452, -0.09870931506156921], [0.06336070597171783, 0.19190797209739685, 0.19640566408634186, 0.0716283768415451, 0.015191914513707161, 0.1417512148618698, -0.25565415620803833, 0.21793678402900696, -0.22879692912101746, -0.11006057262420654, 0.03033195436000824, 0.19972099363803864, -0.1946045160293579, 0.14340141415596008, 0.011903981678187847, -0.08739671856164932], [-0.20818030834197998, 0.11364595592021942, 0.14292587339878082, 0.18636758625507355, 0.0009690806036815047, 0.007808523718267679, 0.06846790760755539, 0.17370784282684326, -0.10920105129480362, 0.002679290948435664, -0.156077578663826, 0.04924847185611725, 0.0940735712647438, -0.014660993590950966, 0.14165446162223816, -0.14760148525238037], [-0.16862376034259796, -0.08351000398397446, 0.15086302161216736, 0.171280175447464, 0.45963215827941895, 0.17260102927684784, -0.06330887228250504, -0.1298736333847046, -0.7555762529373169, -0.14627614617347717, -0.4659903943538666, 0.08737494051456451, 0.07270131260156631, 0.15303833782672882, 0.1712852418422699, 0.15287014842033386], [0.12568756937980652, 0.05294492840766907, 0.15051095187664032, -0.1166275292634964, -0.5151353478431702, -0.17095133662223816, -0.2333173006772995, 0.017268627882003784, 1.3867753744125366, 0.24767646193504333, 0.22933563590049744, 0.1469193696975708, -0.05620761588215828, 0.6161882877349854, 0.12255986034870148, 0.1362685114145279], [-0.12503483891487122, 0.17394375801086426, 0.0024772435426712036, -0.10994511842727661, -0.09374793618917465, 0.1846994161605835, 0.19810953736305237, 0.23726625740528107, -0.11662399768829346, 0.1883019208908081, 0.10083243995904922, -0.1530921459197998, 0.2432204931974411, -0.19116610288619995, -0.24772503972053528, 0.24066761136054993], [0.012542958371341228, 0.3153935670852661, -0.20434598624706268, 0.15144887566566467, 0.47132378816604614, -0.08694155514240265, 0.1842634528875351, 0.24980175495147705, 0.9981549382209778, -0.21910567581653595, 0.6219942569732666, -0.0035077661741524935, 0.16644969582557678, 0.12640178203582764, 0.1350187212228775, -0.17891433835029602], [0.07704995572566986, -0.2598744034767151, -0.05091825872659683, -0.12402783334255219, 1.0137410163879395, -0.18519291281700134, 0.07361038029193878, -0.04043111205101013, -1.5806844234466553, -0.008506011217832565, 0.2821798622608185, -0.22229847311973572, -0.31244799494743347, -0.12360813468694687, -0.25754666328430176, -0.0668390691280365], [-0.17137327790260315, 0.05146884173154831, -0.17676866054534912, -0.12176821380853653, 0.6079795956611633, 0.06415953487157822, 0.08710845559835434, 0.08323496580123901, 1.255921483039856, 0.09732817113399506, 0.7501001358032227, 0.23937296867370605, 0.34573179483413696, 0.22678568959236145, -0.1182032972574234, -0.06438274681568146], [-0.056679617613554, -0.31116652488708496, -0.166667178273201, -0.20707687735557556, -0.17435896396636963, -0.03663044050335884, 0.025762498378753662, 0.22077707946300507, 0.48292961716651917, -0.06535075604915619, 0.3451884686946869, -0.10129064321517944, -0.24387109279632568, 0.10686991363763809, -0.27695992588996887, -0.20457367599010468], [0.05732353776693344, -0.0756235420703888, -0.007676004432141781, 0.1407768279314041, 0.39783984422683716, -0.15444514155387878, 0.10424879938364029, 0.179655522108078, 0.9271039962768555, 0.2029452621936798, 0.6208618879318237, -0.2451600581407547, -0.031066667288541794, 0.09296675026416779, 0.16746166348457336, -0.03163459151983261], [-0.1879495084285736, -0.2554338574409485, 0.10592081397771835, 0.09091763198375702, -0.12692371010780334, 0.11807864904403687, -0.11531481891870499, 0.06525495648384094, -0.2715083956718445, -0.13905641436576843, 0.16175583004951477, 0.13404422998428345, 0.13662639260292053, 0.14181634783744812, -0.21483615040779114, -0.15103119611740112]]
model.2.bias: [-0.18691065907478333, -0.49077922105789185, -0.228689506649971, 0.9332191348075867, -0.19666101038455963, -0.20418305695056915, 0.7912783622741699, 0.5006318688392639, -0.16533413529396057, -0.1471378207206726, -0.27546533942222595, -0.23168246448040009, -0.15438126027584076, -0.19789090752601624, -0.003012248082086444, -0.14870038628578186, -0.04184380918741226, -0.03724169358611107, 0.23160187900066376, -0.021962737664580345, -0.11405036598443985, -0.293854683637619, -0.23452341556549072, 0.028696740046143532, 0.16502216458320618, -0.14279505610466003, -0.3844285309314728, -0.01713905856013298, -0.48221898078918457, -0.41903814673423767, -0.35055071115493774, -0.3083508610725403]
model.4.weight: [[-0.16555801033973694, 0.11958052963018417, 0.12135696411132812, 0.04528960585594177, -0.049241162836551666, -0.055094312876462936, 0.025570448487997055, -0.11069293320178986, -0.28311222791671753, 0.1322261393070221, -0.0022467852104455233, 0.030327986925840378, -0.020587323233485222, 0.01604853756725788, 0.11663945764303207, 0.05362313240766525, 0.05146385356783867, 0.16383536159992218, -0.22573301196098328, 0.03593815118074417, -0.160956472158432, -0.20180034637451172, -0.16105011105537415, -0.18999190628528595, -0.039262354373931885, -0.09294263273477554, 0.038140904158353806, -0.025499891489744186, -0.1812048852443695, -0.1837286800146103, -0.03556584194302559, 0.06995158642530441], [-0.1956021785736084, 0.09903125464916229, 0.01758146472275257, 0.574460506439209, 0.0629643127322197, 0.503558337688446, -0.9087440371513367, -1.001009225845337, 0.6099368333816528, 0.06294877082109451, 0.002712960820645094, 0.07002675533294678, -0.13061866164207458, 0.5615192651748657, 0.9140375256538391, -0.0011738240718841553, 0.37835797667503357, 0.0362689271569252, 1.0559606552124023, -0.4097474217414856, 0.1368967592716217, -0.1412828266620636, -0.14713804423809052, -0.2383238971233368, 0.7622144222259521, -0.165213480591774, 0.6034752130508423, -0.6963262557983398, 0.5945677161216736, -0.09285332262516022, 0.4079104959964752, 0.16149798035621643], [-0.014380762353539467, -0.044030897319316864, 0.05790913105010986, 0.0418408140540123, 0.09562913328409195, 0.06799531728029251, -0.2011217325925827, 0.037834055721759796, -0.09831980615854263, 0.09490209817886353, 0.07471077889204025, -9.350277832709253e-05, 0.0798897072672844, -0.09838996827602386, -0.0929422378540039, 0.04243871942162514, 0.04682430252432823, 0.15012097358703613, 0.06098949909210205, -0.10655751079320908, -0.15354612469673157, -0.03928764909505844, -0.07799200713634491, -0.14052970707416534, 0.0685359388589859, 0.05058833211660385, -0.10544253885746002, 0.07828468084335327, -0.09979504346847534, -0.13596513867378235, -0.07896092534065247, -0.16823400557041168], [0.11272823810577393, -0.04274564981460571, 0.11929517984390259, 1.1643500328063965, 0.16843467950820923, 0.0494491346180439, 0.09549589455127716, -0.2797681391239166, 0.19418616592884064, -0.05719485878944397, -0.13018831610679626, 0.046479348093271255, 0.06298146396875381, 0.2981855273246765, 0.448808491230011, 0.2781069278717041, -0.003879948053508997, -0.07510876655578613, 0.9419511556625366, -0.4200895428657532, -0.1419643759727478, -0.0008811558363959193, 0.11903423070907593, 0.1387765258550644, 0.4926098883152008, -0.2179303616285324, -0.05994962900876999, -0.2742707431316376, 0.02160172536969185, 0.2004683017730713, 0.017680400982499123, -0.10140360891819], [-0.1409383863210678, -0.19083857536315918, -0.026579905301332474, 1.058873176574707, -0.03053108975291252, -0.6278208494186401, 1.0427525043487549, 0.7566050291061401, 0.014663083478808403, 0.16258326172828674, 0.04574597626924515, -0.029266227036714554, 0.1099839061498642, -0.5074964165687561, -0.20960064232349396, 0.12163150310516357, -0.6903313398361206, -0.06712009012699127, 0.24488821625709534, -0.5484645962715149, -0.17519423365592957, 0.005968441255390644, 0.12039192765951157, 0.3669261336326599, 0.1116390973329544, 0.031597331166267395, -0.7809794545173645, -0.06112288311123848, -0.5833693146705627, -0.009572085924446583, -0.4776279032230377, 0.0021347978617995977], [0.12777018547058105, -0.006590165197849274, 0.033896833658218384, -0.16918574273586273, -0.15818069875240326, -0.06188412383198738, -0.16046807169914246, -0.08339927345514297, -0.1227017492055893, -0.13741514086723328, -0.11026440560817719, 0.08624041825532913, -0.16150963306427002, -0.09850537031888962, 0.03127511218190193, -0.031164515763521194, 0.05193816497921944, 0.01402573473751545, -0.1647377610206604, 0.05758672207593918, -0.09698128700256348, 0.09436731785535812, 0.15063366293907166, 0.10799354314804077, 0.020044999197125435, 0.12860803306102753, -0.1232767105102539, -0.16372083127498627, -0.024419482797384262, -0.007865987718105316, 0.07008187472820282, -0.1386936604976654], [0.06230299547314644, -0.14345258474349976, 0.16566917300224304, 0.1715712994337082, -0.1281399428844452, -0.3106100857257843, 1.3230576515197754, 1.0213249921798706, -0.20858995616436005, -0.04973571375012398, -0.0093697439879179, -0.06282027810811996, 0.14396756887435913, -0.6118344068527222, -0.47068047523498535, 0.04040459915995598, 0.0940927267074585, -0.02364964596927166, -0.6884695291519165, 0.6194418668746948, 0.04553604871034622, -0.06270769238471985, -0.028446173295378685, 0.5918315052986145, -0.6868089437484741, -0.016723258420825005, -0.4842354655265808, 1.057152509689331, -0.46048441529273987, 0.02654961869120598, -0.20913274586200714, 0.12918886542320251], [-0.028151284903287888, -0.15373030304908752, -0.03244977071881294, -0.25014203786849976, -0.010701569728553295, 0.040408335626125336, 0.061595894396305084, -0.08511468023061752, -0.16710485517978668, 0.08758315443992615, -0.08571642637252808, 0.07668071240186691, -0.14717498421669006, 0.09428693354129791, -0.09326445311307907, -0.0009548887610435486, 0.02632880210876465, -0.00972378347069025, -0.1904551237821579, -0.0039589605294167995, 0.09845299273729324, 0.09627990424633026, -0.04146942123770714, 0.06730279326438904, -0.1891268938779831, -0.015372633934020996, 0.08404365926980972, -0.044773176312446594, -0.06301970034837723, -0.11982903629541397, -0.041745614260435104, 0.13129818439483643], [0.06836102157831192, 0.08689991384744644, -0.10203157365322113, -0.08480460941791534, 0.040848441421985626, -0.038208331912755966, -0.04204463213682175, -0.2465989589691162, -0.10270287841558456, 0.08879692852497101, -0.10927244275808334, -0.009945476427674294, -0.023007310926914215, -0.167253777384758, -0.05904316157102585, 0.16498644649982452, 0.1207149401307106, 0.027188634499907494, -0.17875634133815765, 0.054543036967515945, 0.04578620567917824, -0.04047916457056999, 0.1442033052444458, -0.20307472348213196, 0.029162269085645676, -0.07222919911146164, -0.1857200413942337, 0.015498016960918903, -0.13010422885417938, -0.224112868309021, -0.14845548570156097, 0.07343171536922455], [-0.055637240409851074, 1.3250391483306885, -0.17864933609962463, -0.8982633352279663, 0.15892139077186584, 1.1812498569488525, -0.4256862998008728, -0.3673361539840698, 0.3018200099468231, -0.18725621700286865, 0.031941838562488556, -0.16991755366325378, -0.022464923560619354, 0.6744505167007446, 0.16330763697624207, 0.17844298481941223, 1.0351066589355469, 0.1201845183968544, 0.16949404776096344, 0.799325704574585, -0.04813829064369202, 0.15323293209075928, -0.05798124521970749, 0.0732746571302414, 0.11398454010486603, 0.13539448380470276, 1.073805809020996, 0.5228962898254395, 1.3594205379486084, 0.17202630639076233, 1.0063722133636475, -0.11868554353713989], [-0.1658478081226349, -0.017206737771630287, 0.08451040834188461, -0.16709895431995392, 0.07378043979406357, -0.16481374204158783, -0.074313223361969, 0.1347980946302414, 0.08831372857093811, -0.005197380669414997, -0.0013254762161523104, 0.12716084718704224, -0.014650854282081127, 0.0804075226187706, 0.041301045566797256, 0.10419966280460358, -0.08274909108877182, -0.044831790030002594, -0.1327245533466339, -0.1644752025604248, -0.11055533587932587, -0.036833859980106354, 0.14772531390190125, -0.056787461042404175, -0.16493602097034454, 0.11762730032205582, -0.11755478382110596, 0.11951042711734772, -0.00022683963470626622, -0.19089297950267792, 0.07466302067041397, -0.13035589456558228], [-0.09687326848506927, 0.05756177380681038, 0.08080532401800156, 0.9024327993392944, 0.13352933526039124, 0.10172943770885468, -0.15293021500110626, -0.3101927638053894, 0.6736509203910828, -0.12964396178722382, -0.03515354171395302, 0.010013271123170853, -0.17153826355934143, 0.6280068755149841, 0.9491729736328125, 0.04322570562362671, -0.3077148497104645, 0.0058661275543272495, 1.2827444076538086, -0.9487118721008301, 0.02157091721892357, -0.024923032149672508, 0.15404590964317322, -0.05600949004292488, 1.2945789098739624, 0.07497625052928925, 0.46737727522850037, -1.0238804817199707, 0.2935684323310852, 0.1469281166791916, 0.5313493013381958, -0.025003287941217422], [0.1181875690817833, -0.19185929000377655, 0.23479637503623962, -0.0527343824505806, 0.03246743604540825, -0.142741397023201, -0.12477871030569077, -0.19280120730400085, -0.07612193375825882, -0.08697216212749481, -0.08347159624099731, 0.08798833191394806, 0.13301965594291687, -0.17807331681251526, -0.021128784865140915, -0.048342619091272354, -0.3740324378013611, 0.06150633096694946, 0.10180264711380005, -0.1550617516040802, 0.10856058448553085, -0.05522782728075981, -0.031107332557439804, 0.036031149327754974, 0.054101645946502686, -0.13592055439949036, -0.12862902879714966, -0.36760038137435913, -0.24900205433368683, -0.21694035828113556, -0.24070017039775848, -0.14010968804359436], [0.03013244830071926, 0.805596649646759, -0.04021744802594185, -0.8991138339042664, -0.12901565432548523, 1.059385061264038, -0.8315097689628601, -0.37423720955848694, 0.47714877128601074, 0.05201294273138046, -0.00419642636552453, 0.11039227247238159, 0.1655033826828003, 0.8121241331100464, 0.5886614322662354, 0.20943251252174377, 0.414811372756958, 0.08069049566984177, 0.24866385757923126, 0.41698193550109863, 0.014690752141177654, -0.1740766316652298, -0.024258848279714584, 0.3494059443473816, 0.29320836067199707, 0.2621992230415344, 0.8926457166671753, 0.29727500677108765, 1.1919218301773071, -0.0677548423409462, 0.9693557620048523, 0.15809211134910583], [-0.15595665574073792, 0.5025542974472046, 0.03989202901721001, -0.5103700757026672, -0.0011047825682908297, 1.069283127784729, 0.2699734568595886, 0.5229785442352295, -0.45878514647483826, -0.04163343459367752, -0.07882533222436905, -0.145226389169693, -0.19479472935199738, -0.17266963422298431, -0.7732009887695312, 0.22685305774211884, 1.2153183221817017, 0.048945389688014984, -0.6782006025314331, 1.7451804876327515, -0.034418195486068726, -0.02018645964562893, 0.11600612103939056, 0.8977793455123901, -1.0431346893310547, 0.1700865626335144, 0.5707519054412842, 1.4504969120025635, 0.46917420625686646, 0.10420936346054077, 0.27410030364990234, 0.09305967390537262], [-0.17123939096927643, -0.02235488034784794, -0.1741335391998291, 0.04659074917435646, 0.07565207779407501, -0.07376184314489365, -0.1210770234465599, 0.12267148494720459, -0.14243784546852112, -0.04947312921285629, -0.1283598244190216, -0.053799379616975784, -0.17358076572418213, -0.018706563860177994, -0.09583205729722977, 0.02239982597529888, 0.11047285795211792, -0.08750895410776138, -0.14001664519309998, 0.10224287211894989, -0.1973990499973297, 0.02726578712463379, -0.042804256081581116, -0.09048527479171753, -0.1312529295682907, 0.15321815013885498, -0.12290485203266144, -0.1672661006450653, -0.11016760021448135, -0.1790933907032013, 0.03983499854803085, -0.063021719455719]]
model.4.bias: [-0.13653960824012756, 0.054798614233732224, -0.1553466022014618, 0.7214363217353821, 0.9859960675239563, -0.072226382791996, 0.7712071537971497, -0.22777187824249268, -0.010621188208460808, -0.07450492680072784, -0.11617722362279892, 0.5014311671257019, -0.049886953085660934, -0.19169725477695465, 0.16362139582633972, -0.10057666152715683]
model.6.weight: [[0.21549245715141296, -0.270654559135437, 0.10036104917526245, 0.15218210220336914, 0.677202045917511, 0.19346091151237488, -0.10029947757720947, -0.13336189091205597, -0.13065870106220245, -1.879377007484436, -0.16182081401348114, 0.35786575078964233, 0.002050725044682622, -0.8266515731811523, -1.7287533283233643, 0.08337423205375671], [-0.2640555500984192, -0.9607598185539246, -0.09100174903869629, -1.6912219524383545, -2.540205478668213, 0.057416003197431564, -0.3182459771633148, -0.04893258959054947, -0.32984334230422974, 0.5796157717704773, -0.1790907233953476, -1.3467276096343994, -0.34307780861854553, 0.4464842677116394, 0.5188547372817993, -0.01747022196650505], [-0.24499157071113586, -1.1587005853652954, 0.08631109446287155, -0.3794107139110565, -0.14420488476753235, -0.07621912658214569, 0.5017749071121216, 0.13925406336784363, 0.062154483050107956, -0.8891651034355164, 0.1354479342699051, -1.610309362411499, 0.05055805295705795, -1.3200041055679321, 0.3491799533367157, -0.16479811072349548], [-0.21106159687042236, 0.580809473991394, -0.019716555252671242, 0.23636925220489502, -1.5535860061645508, 0.17701204121112823, -2.2201995849609375, -0.007047130260616541, -0.2300732433795929, 0.3831028938293457, 0.09926815330982208, 0.4725671410560608, -0.27800723910331726, 0.4693732261657715, -0.5821698904037476, 0.037002116441726685], [-0.26996251940727234, -1.6582752466201782, -0.1544170379638672, -2.18178653717041, -2.2484028339385986, 0.14179465174674988, -2.601475954055786, -0.1049274429678917, -0.33710139989852905, -2.022803783416748, -0.029830902814865112, -1.483553171157837, -0.8854618072509766, -1.7460161447525024, -1.7694101333618164, -0.13796377182006836]]
model.6.bias: [0.47647929191589355, -0.9283421635627747, 0.267015278339386, -0.2678638994693756, -2.0866222381591797]
